{"i_extra":{"zoom_force":0.88},"user_children":[{"enabled_in_frame":839,"stranger_in_frame":null},{"enabled_in_frame":null,"stranger_in_frame":null},{"enabled_in_frame":null,"stranger_in_frame":null},{"enabled_in_frame":null,"stranger_in_frame":null},{"enabled_in_frame":null,"stranger_in_frame":null},{"enabled_in_frame":null,"stranger_in_frame":null},{"enabled_in_frame":null,"stranger_in_frame":null},{"enabled_in_frame":null,"stranger_in_frame":null}],"falling_children":[{"mesh_index":1},{"mesh_index":0},{"mesh_index":0},{"mesh_index":1},{"mesh_index":0},{"mesh_index":1},{"mesh_index":0},{"mesh_index":0},{"mesh_index":1},{"mesh_index":0},{"mesh_index":0},{"mesh_index":1},{"mesh_index":1}],"effects":{"bgcolor":{"r":0.062745,"b":0.109804,"g":0.090196},"intro_overlay":{"a":0.4,"r":0.062745,"b":0.121569,"g":0.090196}},"user_particles":{"scale":[0.18,0.18,0.18]},"mosaic_face":{"eyemouth_weight":[0.113223,0.025978,0,0.06911,0.046916,0.151197,0.058463,0,0,0.057276,0.046675,0.436342,0.42223,0.459787,0.566746,0.641623,0.663662,0.402921,0.414091,0.513017,0.477065,0.370073],"face_weight":[0.600338,0.854971,1,0.848964,0.167345,0.316686,0.231488,0.191703,0.116921,0.213714,0.535665,0.409008,0.349659,0.340191,0.244055,0.273227,0.326718,0.243972,0.25223,0.269269,0.267173,0.274029,0.267512,0.515883,0.416763,0.666013,0.751332,0.806994,0.739113,0.596834,0.708875,0.661151,0.522488,0.480082,0.860118,0.815193,0.757015,0.916107,0.832703,0.705673,0.578169,0.592134,0.653379,0.589564,0.24558,0,0.164797,0.310472,0.411015,0.568451,0.39206,0.630839,0.478134,0.412936,0.640909,0.688243,0.599622,0.551123,0.501074,0.555368,0.547041,0.369442,0.323001,0.263052,0.22865,0.214542,0.44966,0.353284,0.398083,0.336176,0.399587,0.409794,0.332259,0.388863,0.252928,0.392513,0.813724,0.954086,0.949953,0.916048,0.943947,0.919213,0.569431,0.665498,0.679578,0.567674,0.580412,0.661712,0.730342,0.784052,0.759194,0.665643,0.892224,0.91805,0.91781,0.966464,0.986944,0.517688,0.094931,0.116267,0.101227,0.105358,0.21732,0.195971,0.063151,0.10508,0.221561,0.262416,0.231058,0.31074,0,0,0,0,0.643734,0.058463,0.067334,0.151197,0.046675,0.113223,0,0.025978,0.057276,0.235143,0.138074,0.046916,0.06911,0.406902,0.286646,0.172435,0.281391,0.107108,0.098249,0.33326,0.385707,0.306075,0.37938,0.449093,0.595587,0.207528,0.156748,0.588828,0.361096,0.409716,0.751906,0.89555,0.716617,0.497676,0.654197,0.630782,0.929966,0.982913,0.834703,1,1,0.828375,1,0.500032,0.506157,0.501996,0.655725,0.780978,0.833564,0.869695,0.641686,0.73544,0.826469,0.89275,0,0.368478,0.293962,0.388731,0.417552,0.056502,0.03545,0,0.3877,0.394346,0.22333,0.2251,0,0,0.233573,0,0.610937,0.852403,0.344111,0.209996,0.220803,0.120115,0.369677,0.142711,0.128858,0.261641,0.198403,0.261342,0.279225,0.157712,0.37607,0.461091,0.187154,0.360895,0.555006,0.454104,0.518318,0.313546,0.1037,0.26479,0.474652,0.128538,0.589334,0.586734,0.143623,0.708217,0.766599,0.585928,0,0,0,0,0,0.306326,0.103674,0,0,0,0.372423,0.422249,0,0,0,0,0,0,0,0.288896,0.216661,0.205866,0.335851,0.356916,0.137857,0.072075,0.087979,0.380453,0.765257,0.821054,0.656727,0.728377,0.652019,0.632874,0.858762,0.842149,0.833867,0.93489,0.933317,0.910888,0.812746,0.82079,0.743317,0.929163,0.675558,0.77134,0.888996,0.668482,0.542434,0.480988,0.403542,0.280776,0.369489,0.326165,0.412203,0.383669,0.442391,0.320844,0.480566,0.612179,0.701707,0.781459,0.854164,0.733493,0.749836,0.705996,0.822931,0.42223,0.377843,0.414091,0.436342,0.370073,0.663662,0.566746,0.402921,0.53246,0.477065,0.459787,0.459587,0.654094,0.565706,0.464464,0.491918,0.351512,0.307256,0.686528,0.930783,0.832159,0.80131,0.592708,0.762307,0.39386,0.37271,0.830438,0.507103,0.403238,0.469152,0.443104,0.553601,0.490422,0.524861,0.432123,0.478782,0.895464,0.834979,0.593595,0.588344,0.610372,0.604723,0.617929,0.787839,0.719486,0.665448,0.639141,0.641623,0.090057,0.144672,0,0.539036,0.65451,0.587559,0.513017,0,0,0,0],"scale":[30,30,10],"random_y_min":-1000,"random_x_min":-1000,"position":[0,0,1000],"random_y_max":1000,"random_x_max":1000,"random_z_max":-16000,"random_z_min":-1600},"user_particles_mesh":[{"face_vertices":[0.038152,-0.063653,0.023119,0,-0.059517,0.039227,0,-0.103534,0.069954,0.038493,-0.104621,0.052808,0.036197,0.081632,-0.021478,0.000041,0.088304,1.491764,0,0,-0,0.042429,-0.008568,-0.0141,0.074965,0.045805,-0.096762,0.076827,-0.041401,-0.071837,0,-0.153536,0.071614,0.038533,-0.14896,0.056111,0.091498,-0.151409,-0.011075,0.092976,-0.119867,-0.021141,0,-0.184766,0.047131,0.033863,-0.1775,0.034778,0.080272,-0.171101,-0.007969,0.014672,-0.19026,0.009363,-0,-0.195266,0.010965,0.030795,-0.200985,-0.023699,0,-0.208472,-0.01697,0.121243,-0.054658,-0.100737,0.183153,-0.01051,-0.129515,0.234283,-0.085533,-0.138323,0.176093,-0.132913,-0.113097,0.221874,-0.230809,-0.144174,0.241987,-0.279391,-0.157915,0.306483,-0.240744,-0.22545,0.290564,-0.191496,-0.196317,0.172963,-0.257925,-0.113391,0.193472,-0.303309,-0.119153,0.268343,-0.139532,-0.163265,0.200158,-0.18028,-0.128637,0.153183,-0.207138,-0.106757,0.316047,-0.286909,-0.248207,0.256453,-0.324421,-0.170077,0.206227,-0.339919,-0.126553,0.320751,-0.358534,-0.27881,0.238439,-0.412053,-0.167834,0.194203,-0.398041,-0.122565,0.1389,-0.319522,-0.073007,0.149351,-0.339445,-0.104638,0.167479,-0.324306,-0.103252,0.144112,-0.294698,-0.079721,0.077238,-0.429326,-0.06353,-0,-0.440253,-0.035507,0,-0.475131,-0.049614,0.095841,-0.470373,-0.075102,0.126596,-0.408323,-0.084668,0.147383,-0.353823,-0.114221,0.115996,-0.384963,-0.081272,0.167924,-0.375573,-0.111517,0.089321,-0.289214,-0.036301,0.075563,-0.304321,-0.021487,0.165999,-0.347759,-0.116507,0.181297,-0.344482,-0.117068,0.15415,-0.345961,-0.118449,0.141856,-0.352417,-0.12046,0.121892,-0.336462,-0.092747,0.14114,-0.341957,-0.113448,0.132517,-0.328741,-0.079014,0.0726,-0.32102,-0.028674,0.066498,-0.330196,-0.049199,-0,-0.306744,-0.005393,0,-0.321081,-0.008766,0,-0.329258,-0.030311,0.12501,-0.219718,-0.086196,0.055363,-0.234699,-0.037596,0.040271,-0.281992,-0.020561,0,-0.288915,-0.013667,0.107404,-0.175854,-0.0861,0.134935,-0.163211,-0.102034,0,-0.242487,-0.027512,0.118593,-0.151122,-0.086707,0,-0.52733,-0.039309,0.113613,-0.519425,-0.077045,0.229002,-0.510218,-0.208261,0.318452,-0.428674,-0.312063,0.350139,-0.383595,-0.367148,0.345195,-0.320538,-0.332002,0.382181,-0.311069,-0.446371,0.374865,-0.262788,-0.402268,0.4374,0.136356,-0.579237,0.429268,0.230814,-0.572498,0.396799,0.238236,-0.364573,0.416582,0.045594,-0.399157,0.438263,0.053781,-0.580183,0.41459,-0.027461,-0.427616,0.409743,-0.081674,-0.455694,0.408718,-0.12543,-0.47894,0.428942,-0.089156,-0.558807,0.436235,-0.014008,-0.572424,0.410397,-0.186291,-0.529966,0.357093,0.357416,13.35538,0.412645,0.3449,3.243853,0.394462,0.440664,38.771107,0.33537,0.458345,74.977818,0.118192,-0.589743,-0.105229,0.138419,0.136589,-0.156394,0.122045,0.145665,0.409588,0.089222,0.110176,-0.132912,0.110219,0.10748,-0.159984,0.189081,0.040545,-0.145002,0.186106,0.067243,-0.151745,0.136326,0.088892,-0.157315,0.120067,0.069882,-0.143441,0.232322,0.061815,-0.160961,0.238084,0.035599,-0.162214,0.284292,0.077634,-0.190588,0.294716,0.056692,-0.197803,0.33674,0.102368,-0.243338,0.321543,0.110253,-0.231047,0.331825,0.142094,-0.200533,0.318381,0.134581,-0.204874,0.309963,0.262982,1.001363,0.151382,0.127287,-0.162529,0.128763,0.108124,-0.167775,0.185716,0.092715,-0.156667,0.15112,0.106789,-0.165163,0.2297,0.086897,-0.161883,0.309714,0.116233,-0.22245,0.279699,0.095986,-0.18889,0.142249,0.113507,-0.175351,0.233523,0.170065,-0.155951,0.182252,0.159993,-0.156366,0.183143,0.147974,-0.159898,0.232182,0.156804,-0.1574,0.252289,0.216985,0.236813,0.185217,0.20158,2.112614,0.181264,0.164347,-0.112557,0.239806,0.174021,-0.134133,0.108887,0.172255,4.144811,0.065606,0.119426,0.855389,0.253825,-0.003445,-0.154543,0.318923,0.027415,-0.206963,0.362239,0.086195,-0.259092,0.352279,0.17682,-0.19306,0.304534,0.203156,-0.141132,0.254434,0.287093,10.561019,0.034232,0.128624,4.079405,0.075224,0.2352,28.769313,0.37007,0.212799,-0.248551,0.000382,0.130589,8.225861,0.00549,0.234202,50.105867,0.253091,0.331641,25.944583,0.259451,0.387254,54.213049,0.139961,0.382962,115.714109,0.126627,0.322342,62.803044,0.037249,0.354667,170.750021,0.017034,0.303097,104.572452,0.172483,0.442737,201.66086,0.269485,0.469263,132.184226,0.081021,0.395547,270.179172,0.351119,0.512083,125.199729,0.290999,0.51348,211.28805,0.134675,0.403242,354.510326,0.212404,0.468911,291.610479,0.388782,0.058426,-0.287901,0.349565,-0.02266,-0.220536,0.284991,-0.064413,-0.162758,0.308989,-0.116614,-0.191262,0.324462,-0.168301,-0.230756,0.333789,-0.214756,-0.265984,0.338473,-0.256922,-0.295368,0.363227,-0.069628,-0.251188,0.367015,-0.12133,-0.293244,0.370468,-0.165309,-0.33172,0.371912,-0.204505,-0.363676,0.305157,0.125845,-0.201761,0.124979,-0.127185,-0.096468,0.087979,-0.090294,-0.036241,0.11101,-0.373207,-0.086188,0.180937,0.275303,20.170307,0.290459,0.161487,-0.167135,0.279843,0.15831,-0.179454,0.277173,0.145921,-0.180998,0.106631,-0.366109,-0.094343,-0,-0.605289,-0.070169,0.071127,-0.408695,-0.050584,0.067721,-0.389327,-0.055536,-0,-0.415177,-0.022688,-0,-0.391953,-0.027089,0.066305,-0.381269,-0.067569,0,-0.382922,-0.038809,-0.038152,-0.063653,0.023119,-0.038493,-0.104621,0.052808,-0.036094,0.081461,3.116582,-0.042429,-0.008568,-0.0141,-0.074925,0.045737,1.504016,-0.076827,-0.041401,-0.071837,-0.038533,-0.14896,0.056111,-0.091498,-0.151409,-0.011075,-0.092976,-0.119867,-0.021141,-0.033863,-0.1775,0.034778,-0.080272,-0.171101,-0.007969,-0.014672,-0.19026,0.009363,-0.030795,-0.200985,-0.023699,-0.121243,-0.054658,-0.100737,-0.183094,-0.010613,2.123388,-0.234283,-0.085533,-0.138323,-0.176093,-0.132913,-0.113097,-0.221874,-0.230809,-0.144174,-0.306483,-0.240744,-0.22545,-0.241987,-0.279391,-0.157915,-0.290564,-0.191496,-0.196317,-0.172963,-0.257925,-0.113391,-0.193472,-0.303309,-0.119153,-0.200158,-0.18028,-0.128637,-0.268343,-0.139532,-0.163265,-0.153183,-0.207138,-0.106757,-0.316047,-0.286909,-0.248207,-0.256453,-0.324421,-0.170077,-0.206227,-0.339919,-0.126553,-0.320751,-0.358534,-0.27881,-0.238439,-0.412053,-0.167834,-0.194203,-0.398041,-0.122565,-0.1389,-0.319522,-0.073007,-0.144112,-0.294698,-0.079721,-0.167479,-0.324306,-0.103252,-0.149351,-0.339445,-0.104638,-0.077238,-0.429326,-0.06353,-0.095841,-0.470373,-0.075102,-0.126596,-0.408323,-0.084668,-0.147383,-0.353823,-0.114221,-0.167924,-0.375573,-0.111517,-0.115996,-0.384963,-0.081272,-0.075563,-0.304321,-0.021487,-0.089321,-0.289214,-0.036301,-0.165999,-0.347759,-0.116507,-0.181297,-0.344482,-0.117068,-0.15415,-0.345961,-0.118449,-0.141856,-0.352417,-0.12046,-0.121892,-0.336462,-0.092747,-0.132517,-0.328741,-0.079014,-0.14114,-0.341957,-0.113448,-0.0726,-0.32102,-0.028674,-0.066498,-0.330196,-0.049199,-0.12501,-0.219718,-0.086196,-0.055363,-0.234699,-0.037596,-0.040271,-0.281992,-0.020561,-0.107404,-0.175854,-0.0861,-0.134935,-0.163211,-0.102034,-0.118593,-0.151122,-0.086707,-0.113613,-0.519425,-0.077045,-0.229002,-0.510218,-0.208261,-0.318452,-0.428674,-0.312063,-0.345195,-0.320538,-0.332002,-0.350139,-0.383595,-0.367148,-0.382181,-0.311069,-0.446371,-0.374865,-0.262788,-0.402268,-0.40857,0.086422,146.25438,-0.344009,0.146801,211.016791,-0.37241,0.132333,220.689883,-0.406737,0.028542,73.792086,-0.425644,0.031925,86.777958,-0.411505,-0.032804,34.578861,-0.408971,-0.083011,13.817575,-0.428098,-0.090618,14.770148,-0.408603,-0.12563,3.883137,-0.431387,-0.022405,46.690784,-0.410397,-0.186291,-0.529966,-0.261662,0.194693,294.76655,-0.308251,0.164378,310.786156,-0.233514,0.174563,382.511064,-0.173754,0.21338,375.657494,-0.118192,-0.589743,-0.105229,-0.134982,0.130637,36.856846,-0.088219,0.108442,16.121148,-0.118614,0.139758,36.716912,-0.108933,0.105253,19.100196,-0.188378,0.039328,12.66698,-0.135152,0.086859,17.957132,-0.184697,0.064803,20.307858,-0.119571,0.069023,9.971009,-0.230031,0.057848,28.141207,-0.236734,0.03326,19.745444,-0.279011,0.068487,48.989312,-0.32543,0.082779,80.548479,-0.290595,0.049554,41.610157,-0.310351,0.090868,79.994652,-0.314655,0.112354,105.24258,-0.303822,0.109363,94.718762,-0.265713,0.186421,189.598739,-0.148061,0.121534,36.038079,-0.127067,0.105186,23.021292,-0.148922,0.102981,27.384491,-0.183226,0.088402,29.75124,-0.226071,0.080611,38.218116,-0.298635,0.097043,79.464825,-0.272989,0.084364,57.318992,-0.139977,0.109571,28.004764,-0.221028,0.148424,85.804718,-0.22164,0.138544,76.887934,-0.176786,0.136964,55.295713,-0.174743,0.146987,61.661304,-0.229345,0.177269,126.333091,-0.226159,0.150383,90.797394,-0.173339,0.150623,63.837885,-0.172087,0.179047,88.260637,-0.103954,0.164217,45.811172,-0.064693,0.117917,14.857169,-0.253259,-0.004425,10.924737,-0.315804,0.022012,34.612604,-0.351134,0.06696,79.620735,-0.325395,0.130255,139.65481,-0.211982,0.215442,183.477548,-0.277919,0.157057,138.728348,-0.033398,0.127677,12.433339,-0.063461,0.223075,71.176564,-0.330738,0.144674,176.67708,-0.193424,0.235338,222.000745,-0.059785,0.31324,227.770137,-0.168386,0.250888,277.332088,-0.085788,0.278419,158.768758,-0.010537,0.331946,323.823644,-0.099862,0.260706,367.643107,-0.123997,0.196694,429.50645,-0.032163,0.248424,430.566139,0.055331,0.326903,401.411337,-0.379299,0.042001,71.913604,-0.348007,-0.025358,21.793731,-0.284912,-0.06455,2.688436,-0.308988,-0.116616,-0.144073,-0.324462,-0.168301,-0.230756,-0.333789,-0.214756,-0.265984,-0.338473,-0.256922,-0.295368,-0.362731,-0.070488,10.081214,-0.366982,-0.121387,1.455718,-0.370468,-0.165309,-0.33172,-0.371912,-0.204505,-0.363676,-0.293095,0.104953,83.924075,-0.124979,-0.127185,-0.096468,-0.087979,-0.090294,-0.036241,-0.11101,-0.373207,-0.086188,-0.152315,0.230587,140.619224,-0.274071,0.133102,102.127036,-0.265033,0.132658,95.734957,-0.264532,0.124026,86.475716,-0.106631,-0.366109,-0.094343,-0.071127,-0.408695,-0.050584,-0.067721,-0.389327,-0.055536,-0.066305,-0.381269,-0.067569],"eyemouth_vertices":[0.2297,0.086897,-0.161883,0.279699,0.095986,-0.18889,0.277173,0.145921,-0.180998,0.232182,0.156804,-0.1574,0.183143,0.147974,-0.159898,0.185716,0.092715,-0.156667,0.151382,0.127287,-0.162529,0.309714,0.116233,-0.22245,0.305157,0.125845,-0.201761,0.142249,0.113507,-0.175351,0.15112,0.106789,-0.165163,-0.183226,0.088402,29.75124,-0.148061,0.121534,36.038079,-0.176786,0.136964,55.295713,-0.272989,0.084364,57.318992,-0.293095,0.104953,83.924075,-0.298635,0.097043,79.464825,-0.139977,0.109571,28.004764,-0.148922,0.102981,27.384491,-0.264532,0.124026,86.475716,-0.22164,0.138544,76.887934,-0.226071,0.080611,38.218116]},{"face_vertices":[0.038152,-0.063653,0.023119,0,-0.059517,0.039227,0,-0.103534,0.069954,0.038493,-0.104621,0.052808,0.036197,0.081632,-0.021478,0.000041,0.088304,1.491764,0,0,-0,0.042429,-0.008568,-0.0141,0.074965,0.045805,-0.096762,0.076827,-0.041401,-0.071837,0,-0.153536,0.071614,0.038533,-0.14896,0.056111,0.091498,-0.151409,-0.011075,0.092976,-0.119867,-0.021141,0,-0.184766,0.047131,0.033863,-0.1775,0.034778,0.080272,-0.171101,-0.007969,0.014672,-0.19026,0.009363,-0,-0.195266,0.010965,0.030795,-0.200985,-0.023699,0,-0.208472,-0.01697,0.121243,-0.054658,-0.100737,0.183153,-0.01051,-0.129515,0.234283,-0.085533,-0.138323,0.176093,-0.132913,-0.113097,0.221874,-0.230809,-0.144174,0.241987,-0.279391,-0.157915,0.306483,-0.240744,-0.22545,0.290564,-0.191496,-0.196317,0.172963,-0.257925,-0.113391,0.193472,-0.303309,-0.119153,0.268343,-0.139532,-0.163265,0.200158,-0.18028,-0.128637,0.153183,-0.207138,-0.106757,0.316047,-0.286909,-0.248207,0.256453,-0.324421,-0.170077,0.206227,-0.339919,-0.126553,0.320751,-0.358534,-0.27881,0.238439,-0.412053,-0.167834,0.194203,-0.398041,-0.122565,0.1389,-0.319522,-0.073007,0.149351,-0.339445,-0.104638,0.167479,-0.324306,-0.103252,0.144112,-0.294698,-0.079721,0.077238,-0.429326,-0.06353,-0,-0.440253,-0.035507,0,-0.475131,-0.049614,0.095841,-0.470373,-0.075102,0.126596,-0.408323,-0.084668,0.147383,-0.353823,-0.114221,0.115996,-0.384963,-0.081272,0.167924,-0.375573,-0.111517,0.089321,-0.289214,-0.036301,0.075563,-0.304321,-0.021487,0.165999,-0.347759,-0.116507,0.181297,-0.344482,-0.117068,0.15415,-0.345961,-0.118449,0.141856,-0.352417,-0.12046,0.121892,-0.336462,-0.092747,0.14114,-0.341957,-0.113448,0.132517,-0.328741,-0.079014,0.0726,-0.32102,-0.028674,0.066498,-0.330196,-0.049199,-0,-0.306744,-0.005393,0,-0.321081,-0.008766,0,-0.329258,-0.030311,0.12501,-0.219718,-0.086196,0.055363,-0.234699,-0.037596,0.040271,-0.281992,-0.020561,0,-0.288915,-0.013667,0.107404,-0.175854,-0.0861,0.134935,-0.163211,-0.102034,0,-0.242487,-0.027512,0.118593,-0.151122,-0.086707,0,-0.52733,-0.039309,0.113613,-0.519425,-0.077045,0.229002,-0.510218,-0.208261,0.318452,-0.428674,-0.312063,0.350139,-0.383595,-0.367148,0.345195,-0.320538,-0.332002,0.382181,-0.311069,-0.446371,0.374865,-0.262788,-0.402268,0.4374,0.136356,-0.579237,0.429268,0.230814,-0.572498,0.396799,0.238236,-0.364573,0.416582,0.045594,-0.399157,0.438263,0.053781,-0.580183,0.41459,-0.027461,-0.427616,0.409743,-0.081674,-0.455694,0.408718,-0.12543,-0.47894,0.428942,-0.089156,-0.558807,0.436235,-0.014008,-0.572424,0.410397,-0.186291,-0.529966,0.357093,0.357416,13.35538,0.412645,0.3449,3.243853,0.394462,0.440664,38.771107,0.33537,0.458345,74.977818,0.118192,-0.589743,-0.105229,0.138419,0.136589,-0.156394,0.122045,0.145665,0.409588,0.089222,0.110176,-0.132912,0.110219,0.10748,-0.159984,0.189081,0.040545,-0.145002,0.186106,0.067243,-0.151745,0.136326,0.088892,-0.157315,0.120067,0.069882,-0.143441,0.232322,0.061815,-0.160961,0.238084,0.035599,-0.162214,0.284292,0.077634,-0.190588,0.294716,0.056692,-0.197803,0.33674,0.102368,-0.243338,0.321543,0.110253,-0.231047,0.331825,0.142094,-0.200533,0.318381,0.134581,-0.204874,0.309963,0.262982,1.001363,0.151382,0.127287,-0.162529,0.128763,0.108124,-0.167775,0.185716,0.092715,-0.156667,0.15112,0.106789,-0.165163,0.2297,0.086897,-0.161883,0.309714,0.116233,-0.22245,0.279699,0.095986,-0.18889,0.142249,0.113507,-0.175351,0.233523,0.170065,-0.155951,0.182252,0.159993,-0.156366,0.183143,0.147974,-0.159898,0.232182,0.156804,-0.1574,0.252289,0.216985,0.236813,0.185217,0.20158,2.112614,0.181264,0.164347,-0.112557,0.239806,0.174021,-0.134133,0.108887,0.172255,4.144811,0.065606,0.119426,0.855389,0.253825,-0.003445,-0.154543,0.318923,0.027415,-0.206963,0.362239,0.086195,-0.259092,0.352279,0.17682,-0.19306,0.304534,0.203156,-0.141132,0.254434,0.287093,10.561019,0.034232,0.128624,4.079405,0.075224,0.2352,28.769313,0.37007,0.212799,-0.248551,0.000382,0.130589,8.225861,0.00549,0.234202,50.105867,0.253091,0.331641,25.944583,0.259451,0.387254,54.213049,0.139961,0.382962,115.714109,0.126627,0.322342,62.803044,0.037249,0.354667,170.750021,0.017034,0.303097,104.572452,0.172483,0.442737,201.66086,0.269485,0.469263,132.184226,0.081021,0.395547,270.179172,0.351119,0.512083,125.199729,0.290999,0.51348,211.28805,0.134675,0.403242,354.510326,0.212404,0.468911,291.610479,0.388782,0.058426,-0.287901,0.349565,-0.02266,-0.220536,0.284991,-0.064413,-0.162758,0.308989,-0.116614,-0.191262,0.324462,-0.168301,-0.230756,0.333789,-0.214756,-0.265984,0.338473,-0.256922,-0.295368,0.363227,-0.069628,-0.251188,0.367015,-0.12133,-0.293244,0.370468,-0.165309,-0.33172,0.371912,-0.204505,-0.363676,0.305157,0.125845,-0.201761,0.124979,-0.127185,-0.096468,0.087979,-0.090294,-0.036241,0.11101,-0.373207,-0.086188,0.180937,0.275303,20.170307,0.290459,0.161487,-0.167135,0.279843,0.15831,-0.179454,0.277173,0.145921,-0.180998,0.106631,-0.366109,-0.094343,-0,-0.605289,-0.070169,0.071127,-0.408695,-0.050584,0.067721,-0.389327,-0.055536,-0,-0.415177,-0.022688,-0,-0.391953,-0.027089,0.066305,-0.381269,-0.067569,0,-0.382922,-0.038809,-0.038152,-0.063653,0.023119,-0.038493,-0.104621,0.052808,-0.036094,0.081461,3.116582,-0.042429,-0.008568,-0.0141,-0.074925,0.045737,1.504016,-0.076827,-0.041401,-0.071837,-0.038533,-0.14896,0.056111,-0.091498,-0.151409,-0.011075,-0.092976,-0.119867,-0.021141,-0.033863,-0.1775,0.034778,-0.080272,-0.171101,-0.007969,-0.014672,-0.19026,0.009363,-0.030795,-0.200985,-0.023699,-0.121243,-0.054658,-0.100737,-0.183094,-0.010613,2.123388,-0.234283,-0.085533,-0.138323,-0.176093,-0.132913,-0.113097,-0.221874,-0.230809,-0.144174,-0.306483,-0.240744,-0.22545,-0.241987,-0.279391,-0.157915,-0.290564,-0.191496,-0.196317,-0.172963,-0.257925,-0.113391,-0.193472,-0.303309,-0.119153,-0.200158,-0.18028,-0.128637,-0.268343,-0.139532,-0.163265,-0.153183,-0.207138,-0.106757,-0.316047,-0.286909,-0.248207,-0.256453,-0.324421,-0.170077,-0.206227,-0.339919,-0.126553,-0.320751,-0.358534,-0.27881,-0.238439,-0.412053,-0.167834,-0.194203,-0.398041,-0.122565,-0.1389,-0.319522,-0.073007,-0.144112,-0.294698,-0.079721,-0.167479,-0.324306,-0.103252,-0.149351,-0.339445,-0.104638,-0.077238,-0.429326,-0.06353,-0.095841,-0.470373,-0.075102,-0.126596,-0.408323,-0.084668,-0.147383,-0.353823,-0.114221,-0.167924,-0.375573,-0.111517,-0.115996,-0.384963,-0.081272,-0.075563,-0.304321,-0.021487,-0.089321,-0.289214,-0.036301,-0.165999,-0.347759,-0.116507,-0.181297,-0.344482,-0.117068,-0.15415,-0.345961,-0.118449,-0.141856,-0.352417,-0.12046,-0.121892,-0.336462,-0.092747,-0.132517,-0.328741,-0.079014,-0.14114,-0.341957,-0.113448,-0.0726,-0.32102,-0.028674,-0.066498,-0.330196,-0.049199,-0.12501,-0.219718,-0.086196,-0.055363,-0.234699,-0.037596,-0.040271,-0.281992,-0.020561,-0.107404,-0.175854,-0.0861,-0.134935,-0.163211,-0.102034,-0.118593,-0.151122,-0.086707,-0.113613,-0.519425,-0.077045,-0.229002,-0.510218,-0.208261,-0.318452,-0.428674,-0.312063,-0.345195,-0.320538,-0.332002,-0.350139,-0.383595,-0.367148,-0.382181,-0.311069,-0.446371,-0.374865,-0.262788,-0.402268,-0.40857,0.086422,146.25438,-0.344009,0.146801,211.016791,-0.37241,0.132333,220.689883,-0.406737,0.028542,73.792086,-0.425644,0.031925,86.777958,-0.411505,-0.032804,34.578861,-0.408971,-0.083011,13.817575,-0.428098,-0.090618,14.770148,-0.408603,-0.12563,3.883137,-0.431387,-0.022405,46.690784,-0.410397,-0.186291,-0.529966,-0.261662,0.194693,294.76655,-0.308251,0.164378,310.786156,-0.233514,0.174563,382.511064,-0.173754,0.21338,375.657494,-0.118192,-0.589743,-0.105229,-0.134982,0.130637,36.856846,-0.088219,0.108442,16.121148,-0.118614,0.139758,36.716912,-0.108933,0.105253,19.100196,-0.188378,0.039328,12.66698,-0.135152,0.086859,17.957132,-0.184697,0.064803,20.307858,-0.119571,0.069023,9.971009,-0.230031,0.057848,28.141207,-0.236734,0.03326,19.745444,-0.279011,0.068487,48.989312,-0.32543,0.082779,80.548479,-0.290595,0.049554,41.610157,-0.310351,0.090868,79.994652,-0.314655,0.112354,105.24258,-0.303822,0.109363,94.718762,-0.265713,0.186421,189.598739,-0.148061,0.121534,36.038079,-0.127067,0.105186,23.021292,-0.148922,0.102981,27.384491,-0.183226,0.088402,29.75124,-0.226071,0.080611,38.218116,-0.298635,0.097043,79.464825,-0.272989,0.084364,57.318992,-0.139977,0.109571,28.004764,-0.221028,0.148424,85.804718,-0.22164,0.138544,76.887934,-0.176786,0.136964,55.295713,-0.174743,0.146987,61.661304,-0.229345,0.177269,126.333091,-0.226159,0.150383,90.797394,-0.173339,0.150623,63.837885,-0.172087,0.179047,88.260637,-0.103954,0.164217,45.811172,-0.064693,0.117917,14.857169,-0.253259,-0.004425,10.924737,-0.315804,0.022012,34.612604,-0.351134,0.06696,79.620735,-0.325395,0.130255,139.65481,-0.211982,0.215442,183.477548,-0.277919,0.157057,138.728348,-0.033398,0.127677,12.433339,-0.063461,0.223075,71.176564,-0.330738,0.144674,176.67708,-0.193424,0.235338,222.000745,-0.059785,0.31324,227.770137,-0.168386,0.250888,277.332088,-0.085788,0.278419,158.768758,-0.010537,0.331946,323.823644,-0.099862,0.260706,367.643107,-0.123997,0.196694,429.50645,-0.032163,0.248424,430.566139,0.055331,0.326903,401.411337,-0.379299,0.042001,71.913604,-0.348007,-0.025358,21.793731,-0.284912,-0.06455,2.688436,-0.308988,-0.116616,-0.144073,-0.324462,-0.168301,-0.230756,-0.333789,-0.214756,-0.265984,-0.338473,-0.256922,-0.295368,-0.362731,-0.070488,10.081214,-0.366982,-0.121387,1.455718,-0.370468,-0.165309,-0.33172,-0.371912,-0.204505,-0.363676,-0.293095,0.104953,83.924075,-0.124979,-0.127185,-0.096468,-0.087979,-0.090294,-0.036241,-0.11101,-0.373207,-0.086188,-0.152315,0.230587,140.619224,-0.274071,0.133102,102.127036,-0.265033,0.132658,95.734957,-0.264532,0.124026,86.475716,-0.106631,-0.366109,-0.094343,-0.071127,-0.408695,-0.050584,-0.067721,-0.389327,-0.055536,-0.066305,-0.381269,-0.067569],"eyemouth_vertices":[0.2297,0.086897,-0.161883,0.279699,0.095986,-0.18889,0.277173,0.145921,-0.180998,0.232182,0.156804,-0.1574,0.183143,0.147974,-0.159898,0.185716,0.092715,-0.156667,0.151382,0.127287,-0.162529,0.309714,0.116233,-0.22245,0.305157,0.125845,-0.201761,0.142249,0.113507,-0.175351,0.15112,0.106789,-0.165163,-0.183226,0.088402,29.75124,-0.148061,0.121534,36.038079,-0.176786,0.136964,55.295713,-0.272989,0.084364,57.318992,-0.293095,0.104953,83.924075,-0.298635,0.097043,79.464825,-0.139977,0.109571,28.004764,-0.148922,0.102981,27.384491,-0.264532,0.124026,86.475716,-0.22164,0.138544,76.887934,-0.226071,0.080611,38.218116]}],"slice_col":[{"enabled_out_frame":2119,"enabled_in_frame":1767},{"enabled_out_frame":2119,"enabled_in_frame":1767},{"enabled_out_frame":2119,"enabled_in_frame":1767},{"enabled_out_frame":2119,"enabled_in_frame":1767},{"enabled_out_frame":2093,"enabled_in_frame":1662},{"enabled_out_frame":2119,"enabled_in_frame":1767},{"enabled_out_frame":2119,"enabled_in_frame":1767},{"enabled_out_frame":2119,"enabled_in_frame":1767},{"enabled_out_frame":2119,"enabled_in_frame":1767}],"slice_row":[{"cut_y":0.233333},{"cut_y":0.033333},{"cut_y":-0.206667},{"cut_y":-0.473333},{"cut_y":-0.74}],"slitscan":{"camera_fov":12,"uv_in_frame":2094,"plane_position":[0,0,-160],"plane_dimension":[643.078062,361.73141],"uv_out_frame":2511,"cross_section_color":{"r":0.043137,"b":0.286275,"g":0.192157},"camera_position":[0,0,1040]},"tracer":{"indices":[77,82,92,95,177,245,250,260,263],"duration":10}}